-0.0008211342 -0.003015889 -0.39222702 -0.1216115 0.19585788 -0.43219507 -0.24842913 0.13202554 -0.2546411 0.116564654 0.015041238 -0.03267179 0.07149592 -0.19597189 -0.1131351 -0.26292148 -0.0242738 0.25077766 -0.24156718 -0.12354472 0.03007759 -0.008280742 0.024959208 0.15976433 -0.017320396 0.2012588 -0.038134463 -0.057936516 -0.102549136 0.04333206 -0.42393142 -0.008525141 -0.2249794 0.23620465 0.121538065 -0.24639603 0.025815098 0.33169106 -0.03612949 0.0388022 0.07639388 -0.23217957 0.112175524 0.18370467 0.10211612 -0.038268607 0.020135041 -0.1741172 -0.1926506 0.083639234 0.33830673 -0.07600656 0.03761771 -0.03932327 -0.15273221 0.19309457 -0.0146055 -0.19940518 -0.13346568 -0.04257572 0.15425538 -0.045461956 0.18035544 0.1388859 0.19120973 0.106085934 -0.04680333 -0.119727135 -0.014707181 -0.23452654 -0.33299854 -0.0041999086 0.110905364 -0.07123072 -0.06118958 -0.02376743 -0.6463472 0.02026337 0.0049365563 0.029769948 0.020099867 0.1321104 -0.33807775 -0.033175 -0.12414531 0.15567298 -0.054805994 0.19735743 0.012998961 0.068887085 -0.14047429 -0.45060965 -0.34335855 -0.09598865 0.10141884 -0.04721591 0.0801546 0.015488381 0.3049955 -0.10948011 