-0.07677801 -0.2434475 0.017009228 -0.48868462 -0.31457138 -0.10700208 0.4304024 -0.043456603 0.10984538 -0.058110744 -0.13374661 0.060265593 -0.13355258 -0.10406033 -0.3334415 -0.31629214 -0.09271383 -0.26621503 0.11823541 -0.3633326 -0.137445 -0.59617645 0.028318692 -0.16445109 -0.16871499 -0.30152962 -0.041845996 -0.412765 0.18167105 0.060353722 0.092323534 -0.23172069 -0.12787382 -0.13072698 -0.17375582 0.05242564 -0.16179524 -0.32362103 0.2694171 -0.30122113 -0.16722079 -0.07449185 -0.11610389 0.11759493 -0.08453986 0.12702917 -0.011034211 -0.24449049 0.011134489 -0.11658365 -0.19044659 -0.016277954 -0.07751208 0.13637252 0.15302871 0.15704173 0.13802068 -0.00034944012 0.21024157 0.08157029 -0.17968205 -0.2573091 0.099673346 -0.07857102 -0.012874379 0.049381394 -0.16034894 0.41949305 -0.094036564 0.0043368544 -0.52967495 -0.050095826 -0.21453199 -0.42931446 -0.07461499 -0.15893987 -0.23961557 -0.037745956 -0.09567168 -0.10134562 0.1280152 -0.2734459 -0.052420136 -0.17824312 -0.19172187 0.067641534 -0.33729059 0.10505885 -0.042182278 0.010066782 0.035558518 -0.18445764 0.0297379 -0.0059455396 -0.1291049 -0.52655256 0.08177605 -0.036002487 0.0074024578 0.37579432 