-0.021399144 -0.12501828 -0.50846434 -0.07163607 -0.06601396 -0.2552364 -0.119525254 -0.07830023 -0.10010465 -0.30100405 0.02740672 0.08844535 -0.09970458 0.11281728 -0.077172235 -0.04766052 0.07682966 0.024333669 -0.23877822 0.21294236 0.1697019 0.073451884 0.028245056 -0.032192186 -0.06277363 -0.005519248 -0.13285019 -0.090120025 0.15674315 0.12979026 -0.4034978 0.08301822 -0.20983316 0.08516186 0.17462178 -0.15645939 0.05735888 -0.05262266 -0.24272075 -0.027899334 -0.11475365 -0.02318044 0.058355246 0.24771214 0.23547266 -0.0014916466 -0.15391168 -0.5113723 0.030750453 -0.01157152 -0.0030467103 0.043622997 -0.016597215 0.010902522 -0.17057005 0.098910086 0.06616767 -0.08102987 0.09820792 0.03988223 0.09434944 0.07173982 0.08686826 0.05138496 0.037477713 -0.034918614 -0.14888814 -0.13377702 0.02849314 -0.20599851 0.120877534 0.04058419 -0.038016703 -0.08099426 0.07354987 -0.054784983 0.0868937 -0.021105384 -0.03273673 -0.035076108 -0.112729296 -0.06778762 -0.26316497 -0.22463885 0.06905662 -0.18153575 -0.0014496727 -0.2607087 -0.5414226 -0.005496233 0.017429195 0.13778183 -0.040516473 -0.29335243 -0.04358246 0.016260613 -0.14217824 0.011279269 -0.17161062 -0.071714856 