-0.045675144 -0.049441263 -0.4095235 0.0040074238 -0.06089585 -0.2191587 0.11150957 -0.07224156 -0.037329294 -0.18514326 -0.18543658 0.035855185 -0.011345239 -0.42527586 0.09490018 -0.052970957 0.08250124 0.028421247 -0.028015617 -0.17063287 -0.011871212 -0.034576047 -0.5481712 -0.19864821 -0.059992377 -0.2150395 -0.093574084 -0.122465305 -0.004875707 -0.27601174 0.00791334 0.17435144 -0.29224268 0.05703696 0.13917923 -0.051182985 -0.13658321 0.016832033 -0.10211081 0.041703783 -0.08762807 -0.21757546 0.17184216 0.08556161 -0.03835581 -0.14150745 0.2895435 -0.16967246 -0.35257444 -0.14433083 -0.37155563 0.00862 -0.23111261 0.114757776 0.0016082152 -0.08371383 -0.163825 -0.13416703 -0.53549415 0.001353707 -0.16019428 0.115934074 -0.052755594 -0.25306374 0.16291633 -0.5924664 -0.13527915 0.23612578 0.0899728 -0.16891472 -0.083950005 0.068577096 -0.67447644 -0.12465029 -0.17783518 -0.23303808 -0.04526215 0.04785084 0.03738219 -0.06570995 0.06669499 -0.06746304 -0.024820166 0.14729482 -0.08833498 -0.19972417 -0.021131428 -0.03281861 -0.20612364 -0.09191076 -0.018165695 -0.0066720643 -0.08947549 -0.23604494 0.022509515 -0.046147928 -0.14866848 -0.020811917 0.11384548 -0.14861888 