0.2629433 0.019599807 0.08494823 -0.15196042 -0.086501345 -0.17517301 0.053983767 0.16507599 -0.045397 0.1135291 -0.23756576 -0.19048171 -0.12578024 -0.08979073 0.3507491 0.14037633 -0.037442777 0.047282193 0.012915471 0.15515092 0.06330459 -0.14882459 0.0010951157 -0.102959976 0.15210603 -0.0049429038 -0.14758798 0.005979162 0.10760718 -0.00037824776 -0.07185102 0.07230671 -0.24482466 0.08038495 0.30695057 0.056124046 0.13458562 0.15482125 -0.100270964 -0.045874603 0.09748341 -0.15222794 -0.034955088 0.03201415 0.15135546 0.06992882 -0.0679069 0.16676912 0.012741332 -0.12847683 -0.23339696 0.0014067838 0.11689593 0.06310004 0.045185782 -0.02372942 -0.033903625 -0.049383882 0.17396729 -0.07558929 -0.11254766 -0.23946273 0.0231938 0.0021090754 0.09477373 -0.029387148 0.052025322 0.07908415 0.10238682 -0.01126284 0.036615238 -0.14093566 0.059536286 -0.2565975 0.0579755 -0.022520358 -0.089896604 -0.12026161 0.033301108 -0.25361064 0.3967108 0.11232836 0.075824626 0.06544711 0.13181965 0.085136615 -0.22081575 0.03680973 0.06407809 0.04078893 0.024776345 -0.20118515 0.023979226 0.07705009 -0.10735082 -0.024118192 -0.06969508 0.09910345 0.31133783 -0.0067914007 