0.1513352 0.09254963 -0.23690152 -0.20261754 -0.33330953 0.11594157 -0.052501272 0.36394504 -0.43785948 -0.11556955 -0.018998545 -0.09958861 0.037331488 -0.27349964 0.11130706 -0.11730424 -0.18842195 0.16500674 0.17746519 -0.026025584 0.11122478 0.024839524 0.115756504 0.08621527 0.024790147 0.08977813 0.0761246 -0.15335733 -0.21709691 -0.24825831 -0.27570358 0.11717537 0.15513676 -0.122808225 0.2569392 -0.18330665 -0.301916 0.05093661 0.24550006 -0.04439478 -0.16743632 0.29820758 -0.04467694 -0.23292364 -0.26881862 -0.13811852 -0.46784276 -0.42887446 0.14247327 -0.07032504 -0.21359341 0.063377686 0.09555447 0.057377126 -0.14164141 0.28613436 -0.30774525 0.30502987 -0.4865151 -0.0909544 0.14640239 -0.360093 -0.09883019 -0.48435453 -0.21992658 0.006883044 -0.4636179 -0.3913499 -0.08092439 -0.30811632 0.03198778 -0.0015809592 -0.21582055 -0.5517965 -0.062032424 0.050844952 0.09508699 -0.2374082 -0.14929046 0.18864417 0.33646643 0.14326179 -0.20924655 0.2054051 0.048072547 -0.44443622 -0.07558687 -0.3573502 -0.32767162 0.18543045 0.0020021882 0.13374035 -0.0365247 0.33279055 0.29933316 -0.5093627 -0.053061236 -0.6190803 -0.31245717 -0.44040364 