-0.096147925 0.18348165 -0.2649285 -0.27642298 -0.4784558 -0.28421608 0.012198188 -0.65682375 0.0008302466 0.11909641 -0.50425535 -0.104768604 -0.0014815901 -0.052786767 -0.07294982 0.23046592 0.17569235 -0.01136906 -0.18323894 0.15598677 -0.19744089 -0.15821768 0.11690068 0.0060495557 -0.11582633 -0.31210798 0.16572614 -0.15935104 -0.5209927 0.1634188 -0.0044804127 0.15166478 -0.6326339 -0.66331744 0.0026811587 -0.012183297 -0.14540283 0.341877 -0.086249344 -0.57278234 -0.21539025 -0.03359903 -0.62821317 -0.26993933 0.019034477 -0.38810167 0.14352931 -0.19948778 -0.12670457 -0.21161897 -0.4677779 -0.0036934353 0.00037759915 0.18763813 -0.18097548 -0.4307675 -0.35630023 0.0072022863 0.13951744 -0.103820264 0.0820665 0.06490905 -0.2753173 -0.3340278 -0.34833887 -0.028854268 0.015822396 -0.25173765 -0.03561109 -0.015155578 0.18688849 0.0101796985 -0.10658206 -0.15983972 0.3485929 -0.019108828 -0.043038495 -0.049519096 -0.08553734 0.08000438 -0.12573376 -0.096872404 0.1008175 -0.0027637244 -0.68721324 -0.1380727 0.11782291 0.17213546 0.10192989 0.0017881102 0.040269796 0.1529427 -0.052883066 -0.033737 0.026149785 -0.3033228 0.32355207 -0.04371694 0.3873996 -0.014918305 