-0.203739 0.28310332 -0.46837014 -0.05975639 0.53865373 -0.1574509 -0.01532323 -0.109709345 0.2342728 -0.42144397 -0.0062595713 -0.06764337 -0.452775 0.0021881 -0.50338805 -0.43136498 -0.47821906 0.12603338 0.097518474 -0.12859309 -0.36570206 0.17922385 0.05633938 0.12902124 0.19624878 0.079079 -0.23603281 -0.31959295 0.28119585 0.13472936 0.12980117 0.17277709 -0.20663679 -0.018883945 0.37482342 -0.100245364 0.031920195 0.14320841 0.13757607 0.052634425 -0.37114042 -0.2849855 -0.39485544 -0.003023176 0.09128566 -0.10092712 -0.19425328 0.20515026 0.02714773 0.4228426 -0.24622387 0.093253225 0.2656937 -0.3154715 0.21386957 0.44784117 -0.13635582 0.106959194 -0.2526332 -0.45580658 -0.3457661 -0.30279988 -0.10143625 -0.1660681 0.49014425 -0.024405796 -0.003580619 -0.14384751 0.0065885494 -0.2934531 0.14958854 -0.055094402 -0.26034203 0.2447881 0.521179 0.017000126 -0.7233798 -0.16564408 -0.7044581 -0.35833022 -0.03815058 0.17362142 -0.19235101 -0.22544119 -0.1875961 0.06579758 -0.0074097156 -0.5050241 -0.32529977 -0.05931528 0.07605624 -0.032734115 -0.016946984 -0.32862696 -0.23234181 -0.16910881 -0.397887 -0.22987059 -0.7457192 -0.14472158 