-0.0028983029 0.09711702 0.04511278 0.11010419 0.088548 0.032514047 -0.029192256 -0.10281525 0.123734325 -0.0009842814 0.098666534 -0.09927958 -0.0062070237 -0.012578592 -0.13709162 -0.12986127 -0.38812265 -0.2263928 -0.09342755 0.14638643 -0.056657024 0.16603707 -0.17170937 -0.07887115 0.07137459 0.0012112596 0.16453269 -0.05927703 -0.02463167 0.08144495 -0.028279498 -0.06447195 0.15446104 0.2952089 -0.33686033 0.030040441 0.14488408 0.0909385 -0.045434915 -0.06329552 0.34101135 0.2771996 -0.013233332 0.10844207 -0.015874408 -0.19953194 0.027156077 -0.039999694 -0.06122092 0.20881568 -0.116397254 0.06844484 0.006135676 -0.21987663 -0.10405792 0.07650832 -0.29435706 -0.07770703 -0.13087326 0.19444735 0.086913966 -0.07373036 0.120043755 -0.023908535 0.02304979 0.006735829 -0.09041113 -0.3425774 -0.3409266 -0.14830549 0.27185652 -0.049935922 -0.14709365 0.066762626 -0.108085826 0.14073399 0.13679256 0.043307886 -0.0610464 -0.09188142 -0.032581586 0.089924216 0.027995137 0.062679976 -0.18866968 -0.23018283 -0.4156813 -0.330201 0.24493091 0.04127633 0.019510452 -0.055860348 0.20346616 -0.050923936 -0.008142546 0.023797512 0.067369096 -0.05142864 0.09732352 0.0076992917 