0.1980408 -0.11344473 0.21398664 -0.016290896 0.10963846 0.11886209 -0.057590175 -0.10037031 0.1126708 -0.2138979 0.08385861 0.076289624 0.16279273 -0.23565459 -0.38399562 -0.054638654 -0.033642095 0.028030697 0.031388946 0.3113161 0.03912467 -0.49121043 0.1189074 0.013289283 0.26908562 -0.19154043 -0.095171966 -0.10326047 0.11451953 -0.12751883 0.27032635 -0.0330477 0.11471623 -0.14701642 -0.051012617 0.08799931 -0.024691809 -0.058088083 0.07221617 -0.07536203 -0.16558169 0.19846782 0.14109224 0.055900812 -0.012457526 -0.04240453 0.08626037 -0.00016574276 0.08945479 -0.1718877 -0.009124727 -0.014763044 -0.16609707 -0.057212133 0.06843829 0.036905088 0.10536846 0.10238873 -0.19564337 -0.14801712 -0.010120286 -0.06849669 -0.11823856 -0.7346095 -0.025097577 -0.1943394 -0.24370965 -0.022332497 -0.32870126 0.41717747 -0.46643534 -0.16192287 0.09927838 -0.46419188 -0.5615112 -0.119679354 -0.3725957 -0.09008811 0.018746097 -0.23237947 0.22374506 0.04453625 -0.1195767 -0.032384183 -0.13094054 -0.22383957 -0.22218905 -0.07472737 -0.12201459 -0.06687994 0.041680515 0.019302573 -0.07747419 0.16566016 -0.30666196 0.12656249 -0.13384235 -0.09472878 0.18222639 0.02966653 