-0.4465463 0.21013455 -0.13120317 0.04943757 -0.0330051 0.06381512 -0.16081542 -0.3780093 0.02986203 -0.0045369295 -0.07989306 -0.39995998 -0.2762473 -0.02029904 -0.037994225 -0.10513507 -0.039205603 0.06780338 -0.012870126 -0.06764269 -0.018502118 0.12742583 -0.087865435 -0.34909835 -0.24551967 0.017827518 0.036791686 0.16055663 -0.45619744 -0.14519592 -0.066038616 -0.033300225 0.10888974 0.016431106 -0.16987966 -0.085928686 0.07860687 -0.08116488 -0.27945766 0.16085738 0.06491637 -0.17011224 0.029459488 0.05144238 -0.17533292 0.16786167 -0.28191915 -0.2591417 -0.14929098 -0.016885113 0.19066928 -0.46884245 0.31398377 -0.08549231 -0.051391482 -0.040162843 -0.07779696 -0.088988684 0.012291613 0.12377297 0.07133099 0.21348383 0.0014258617 -0.11312514 -0.066391625 0.12746657 0.025853114 -0.046326477 -0.023631316 0.070788525 -0.18984298 0.07537125 0.10787921 0.12782674 0.1859638 0.19639136 0.23580724 0.021561457 -0.050464284 0.04726032 -0.18464656 -0.1676298 -0.018143684 0.04175998 0.026415937 -0.09014079 -0.11809919 0.013520654 -0.13081187 -0.31083086 -0.11144301 -0.22958459 -0.06297626 -0.13046893 -0.0439658 -0.16159646 0.050829533 0.08237291 -0.037557997 0.05794973 