-0.29771018 0.025439773 -0.21449521 -0.181684 -0.1957116 0.14377119 0.23767726 -0.17539002 -0.026650932 0.19053912 -0.12179158 0.22354919 0.19173396 -0.1942731 -0.24507256 -0.025305808 -0.17904623 -0.09635712 0.07621086 -0.262551 -0.03355851 -0.020486742 0.32889554 -0.08801814 -0.29224387 -0.1645397 -0.2008027 0.17614537 -0.29494238 -0.15795678 -0.10865113 0.15482278 0.21377344 -0.20200734 -0.1899204 0.1240463 -0.113154806 -0.30456024 -0.23199908 -0.21870185 0.2189985 0.28565222 0.23385596 -0.22413458 -0.09332354 -0.18602064 -0.29725558 -0.22289056 0.14678515 -0.1786573 -0.24607857 0.07834964 -0.1453092 0.18719013 -0.22187427 0.20075579 0.18362477 0.1491912 0.036721323 -0.023254419 0.035208985 -0.028973991 -0.015615865 0.11702678 -0.12312912 -0.15297496 0.29352963 0.14486898 0.147753 -0.062171858 0.012711325 -0.0011495393 -0.015661333 0.11869212 -0.22531906 0.22381748 -0.18912537 -0.16925775 0.14853768 0.08919172 0.35612184 0.19375388 -0.1525265 -0.14999992 -0.0061899405 -0.0050477935 -0.077262744 0.037137505 0.24868008 -0.16707726 -0.19017676 0.11903977 -0.15986063 -0.15728544 0.22544824 0.024101546 -0.2754338 -0.20844299 -0.12785725 -0.029162647 